digraph Tree {
node [shape=box, style="filled", color="black"] ;
0 [label="WHOIS_COUNTRY_ES <= 0.5\ngini = 0.216\nsamples = 1423\nvalue = [1248, 175]\nclass = T", fillcolor="#e99355"] ;
1 [label="DNS_QUERY_TIMES <= 0.25\ngini = 0.167\nsamples = 1373\nvalue = [1247, 126]\nclass = T", fillcolor="#e88e4d"] ;
0 -> 1 [labeldistance=2.5, labelangle=45, headlabel="True"] ;
2 [label="URL_LENGTH <= 1.161\ngini = 0.048\nsamples = 730\nvalue = [712, 18]\nclass = T", fillcolor="#e6843e"] ;
1 -> 2 ;
3 [label="SOURCE_APP_BYTES <= -0.055\ngini = 0.019\nsamples = 636\nvalue = [630, 6]\nclass = T", fillcolor="#e5823b"] ;
2 -> 3 ;
4 [label="gini = 0.0\nsamples = 423\nvalue = [423, 0]\nclass = T", fillcolor="#e58139"] ;
3 -> 4 ;
5 [label="APP_BYTES <= -0.172\ngini = 0.055\nsamples = 213\nvalue = [207, 6]\nclass = T", fillcolor="#e6853f"] ;
3 -> 5 ;
6 [label="WHOIS_COUNTRY_US <= -0.5\ngini = 0.494\nsamples = 9\nvalue = [5, 4]\nclass = T", fillcolor="#fae6d7"] ;
5 -> 6 ;
7 [label="TCP_CONVERSATION_EXCHANGE <= -0.25\ngini = 0.444\nsamples = 6\nvalue = [2, 4]\nclass = y", fillcolor="#9ccef2"] ;
6 -> 7 ;
8 [label="URL_LENGTH <= -0.25\ngini = 0.5\nsamples = 4\nvalue = [2, 2]\nclass = T", fillcolor="#ffffff"] ;
7 -> 8 ;
9 [label="gini = 0.0\nsamples = 1\nvalue = [1, 0]\nclass = T", fillcolor="#e58139"] ;
8 -> 9 ;
10 [label="SERVER_nginx <= 0.5\ngini = 0.444\nsamples = 3\nvalue = [1, 2]\nclass = y", fillcolor="#9ccef2"] ;
8 -> 10 ;
11 [label="WHOIS_COUNTRY_None <= 0.5\ngini = 0.5\nsamples = 2\nvalue = [1, 1]\nclass = T", fillcolor="#ffffff"] ;
10 -> 11 ;
12 [label="gini = 0.0\nsamples = 1\nvalue = [0, 1]\nclass = y", fillcolor="#399de5"] ;
11 -> 12 ;
13 [label="gini = 0.0\nsamples = 1\nvalue = [1, 0]\nclass = T", fillcolor="#e58139"] ;
11 -> 13 ;
14 [label="gini = 0.0\nsamples = 1\nvalue = [0, 1]\nclass = y", fillcolor="#399de5"] ;
10 -> 14 ;
15 [label="gini = 0.0\nsamples = 2\nvalue = [0, 2]\nclass = y", fillcolor="#399de5"] ;
7 -> 15 ;
16 [label="gini = 0.0\nsamples = 3\nvalue = [3, 0]\nclass = T", fillcolor="#e58139"] ;
6 -> 16 ;
17 [label="TCP_CONVERSATION_EXCHANGE <= 0.295\ngini = 0.019\nsamples = 204\nvalue = [202, 2]\nclass = T", fillcolor="#e5823b"] ;
5 -> 17 ;
18 [label="gini = 0.0\nsamples = 166\nvalue = [166, 0]\nclass = T", fillcolor="#e58139"] ;
17 -> 18 ;
19 [label="APP_BYTES <= 0.11\ngini = 0.1\nsamples = 38\nvalue = [36, 2]\nclass = T", fillcolor="#e68844"] ;
17 -> 19 ;
20 [label="gini = 0.0\nsamples = 2\nvalue = [0, 2]\nclass = y", fillcolor="#399de5"] ;
19 -> 20 ;
21 [label="gini = 0.0\nsamples = 36\nvalue = [36, 0]\nclass = T", fillcolor="#e58139"] ;
19 -> 21 ;
22 [label="SERVER_Microsoft <= 0.5\ngini = 0.223\nsamples = 94\nvalue = [82, 12]\nclass = T", fillcolor="#e99356"] ;
2 -> 22 ;
23 [label="TCP_CONVERSATION_EXCHANGE <= 0.386\ngini = 0.053\nsamples = 73\nvalue = [71, 2]\nclass = T", fillcolor="#e6853f"] ;
22 -> 23 ;
24 [label="WHOIS_COUNTRY_OTHER <= 0.5\ngini = 0.029\nsamples = 69\nvalue = [68, 1]\nclass = T", fillcolor="#e5833c"] ;
23 -> 24 ;
25 [label="gini = 0.0\nsamples = 64\nvalue = [64, 0]\nclass = T", fillcolor="#e58139"] ;
24 -> 25 ;
26 [label="SOURCE_APP_BYTES <= -0.041\ngini = 0.32\nsamples = 5\nvalue = [4, 1]\nclass = T", fillcolor="#eca06a"] ;
24 -> 26 ;
27 [label="gini = 0.0\nsamples = 3\nvalue = [3, 0]\nclass = T", fillcolor="#e58139"] ;
26 -> 27 ;
28 [label="TCP_CONVERSATION_EXCHANGE <= -0.114\ngini = 0.5\nsamples = 2\nvalue = [1, 1]\nclass = T", fillcolor="#ffffff"] ;
26 -> 28 ;
29 [label="gini = 0.0\nsamples = 1\nvalue = [0, 1]\nclass = y", fillcolor="#399de5"] ;
28 -> 29 ;
30 [label="gini = 0.0\nsamples = 1\nvalue = [1, 0]\nclass = T", fillcolor="#e58139"] ;
28 -> 30 ;
31 [label="CHARSET_ISO-8859 <= 0.5\ngini = 0.375\nsamples = 4\nvalue = [3, 1]\nclass = T", fillcolor="#eeab7b"] ;
23 -> 31 ;
32 [label="gini = 0.0\nsamples = 3\nvalue = [3, 0]\nclass = T", fillcolor="#e58139"] ;
31 -> 32 ;
33 [label="gini = 0.0\nsamples = 1\nvalue = [0, 1]\nclass = y", fillcolor="#399de5"] ;
31 -> 33 ;
34 [label="DIST_REMOTE_TCP_PORT <= 0.3\ngini = 0.499\nsamples = 21\nvalue = [11, 10]\nclass = T", fillcolor="#fdf4ed"] ;
22 -> 34 ;
35 [label="SOURCE_APP_BYTES <= -0.055\ngini = 0.408\nsamples = 14\nvalue = [4, 10]\nclass = y", fillcolor="#88c4ef"] ;
34 -> 35 ;
36 [label="gini = 0.0\nsamples = 4\nvalue = [4, 0]\nclass = T", fillcolor="#e58139"] ;
35 -> 36 ;
37 [label="gini = 0.0\nsamples = 10\nvalue = [0, 10]\nclass = y", fillcolor="#399de5"] ;
35 -> 37 ;
38 [label="gini = 0.0\nsamples = 7\nvalue = [7, 0]\nclass = T", fillcolor="#e58139"] ;
34 -> 38 ;
39 [label="DIST_REMOTE_TCP_PORT <= 0.3\ngini = 0.28\nsamples = 643\nvalue = [535, 108]\nclass = T", fillcolor="#ea9a61"] ;
1 -> 39 ;
40 [label="URL_LENGTH <= -0.196\ngini = 0.465\nsamples = 278\nvalue = [176, 102]\nclass = T", fillcolor="#f4caac"] ;
39 -> 40 ;
41 [label="SOURCE_APP_BYTES <= 1.305\ngini = 0.498\nsamples = 133\nvalue = [62, 71]\nclass = y", fillcolor="#e6f3fc"] ;
40 -> 41 ;
42 [label="APP_BYTES <= 0.608\ngini = 0.435\nsamples = 94\nvalue = [30, 64]\nclass = y", fillcolor="#96cbf1"] ;
41 -> 42 ;
43 [label="SERVER_nginx <= 0.5\ngini = 0.493\nsamples = 68\nvalue = [30, 38]\nclass = y", fillcolor="#d5eafa"] ;
42 -> 43 ;
44 [label="REMOTE_IPS <= 0.1\ngini = 0.48\nsamples = 40\nvalue = [24, 16]\nclass = T", fillcolor="#f6d5bd"] ;
43 -> 44 ;
45 [label="WHOIS_COUNTRY_None <= 0.5\ngini = 0.465\nsamples = 19\nvalue = [7, 12]\nclass = y", fillcolor="#acd6f4"] ;
44 -> 45 ;
46 [label="URL_LENGTH <= -0.911\ngini = 0.391\nsamples = 15\nvalue = [4, 11]\nclass = y", fillcolor="#81c1ee"] ;
45 -> 46 ;
47 [label="URL_LENGTH <= -0.964\ngini = 0.444\nsamples = 3\nvalue = [2, 1]\nclass = T", fillcolor="#f2c09c"] ;
46 -> 47 ;
48 [label="gini = 0.0\nsamples = 1\nvalue = [0, 1]\nclass = y", fillcolor="#399de5"] ;
47 -> 48 ;
49 [label="gini = 0.0\nsamples = 2\nvalue = [2, 0]\nclass = T", fillcolor="#e58139"] ;
47 -> 49 ;
50 [label="WHOIS_COUNTRY_PA <= 0.5\ngini = 0.278\nsamples = 12\nvalue = [2, 10]\nclass = y", fillcolor="#61b1ea"] ;
46 -> 50 ;
51 [label="SOURCE_APP_BYTES <= 0.04\ngini = 0.165\nsamples = 11\nvalue = [1, 10]\nclass = y", fillcolor="#4da7e8"] ;
50 -> 51 ;
52 [label="CHARSET_windows-1251/2 <= 0.5\ngini = 0.5\nsamples = 2\nvalue = [1, 1]\nclass = T", fillcolor="#ffffff"] ;
51 -> 52 ;
53 [label="gini = 0.0\nsamples = 1\nvalue = [1, 0]\nclass = T", fillcolor="#e58139"] ;
52 -> 53 ;
54 [label="gini = 0.0\nsamples = 1\nvalue = [0, 1]\nclass = y", fillcolor="#399de5"] ;
52 -> 54 ;
55 [label="gini = 0.0\nsamples = 9\nvalue = [0, 9]\nclass = y", fillcolor="#399de5"] ;
51 -> 55 ;
56 [label="gini = 0.0\nsamples = 1\nvalue = [1, 0]\nclass = T", fillcolor="#e58139"] ;
50 -> 56 ;
57 [label="URL_LENGTH <= -0.393\ngini = 0.375\nsamples = 4\nvalue = [3, 1]\nclass = T", fillcolor="#eeab7b"] ;
45 -> 57 ;
58 [label="gini = 0.0\nsamples = 3\nvalue = [3, 0]\nclass = T", fillcolor="#e58139"] ;
57 -> 58 ;
59 [label="gini = 0.0\nsamples = 1\nvalue = [0, 1]\nclass = y", fillcolor="#399de5"] ;
57 -> 59 ;
60 [label="CHARSET_ISO-8859 <= 0.5\ngini = 0.308\nsamples = 21\nvalue = [17, 4]\nclass = T", fillcolor="#eb9f68"] ;
44 -> 60 ;
61 [label="gini = 0.0\nsamples = 12\nvalue = [12, 0]\nclass = T", fillcolor="#e58139"] ;
60 -> 61 ;
62 [label="REMOTE_IPS <= 0.3\ngini = 0.494\nsamples = 9\nvalue = [5, 4]\nclass = T", fillcolor="#fae6d7"] ;
60 -> 62 ;
63 [label="gini = 0.0\nsamples = 3\nvalue = [3, 0]\nclass = T", fillcolor="#e58139"] ;
62 -> 63 ;
64 [label="DIST_REMOTE_TCP_PORT <= 0.1\ngini = 0.444\nsamples = 6\nvalue = [2, 4]\nclass = y", fillcolor="#9ccef2"] ;
62 -> 64 ;
65 [label="gini = 0.0\nsamples = 4\nvalue = [0, 4]\nclass = y", fillcolor="#399de5"] ;
64 -> 65 ;
66 [label="gini = 0.0\nsamples = 2\nvalue = [2, 0]\nclass = T", fillcolor="#e58139"] ;
64 -> 66 ;
67 [label="WHOIS_COUNTRY_US <= -0.5\ngini = 0.337\nsamples = 28\nvalue = [6, 22]\nclass = y", fillcolor="#6fb8ec"] ;
43 -> 67 ;
68 [label="URL_LENGTH <= -0.304\ngini = 0.083\nsamples = 23\nvalue = [1, 22]\nclass = y", fillcolor="#42a1e6"] ;
67 -> 68 ;
69 [label="gini = 0.0\nsamples = 19\nvalue = [0, 19]\nclass = y", fillcolor="#399de5"] ;
68 -> 69 ;
70 [label="DNS_QUERY_TIMES <= 1.25\ngini = 0.375\nsamples = 4\nvalue = [1, 3]\nclass = y", fillcolor="#7bbeee"] ;
68 -> 70 ;
71 [label="gini = 0.0\nsamples = 3\nvalue = [0, 3]\nclass = y", fillcolor="#399de5"] ;
70 -> 71 ;
72 [label="gini = 0.0\nsamples = 1\nvalue = [1, 0]\nclass = T", fillcolor="#e58139"] ;
70 -> 72 ;
73 [label="gini = 0.0\nsamples = 5\nvalue = [5, 0]\nclass = T", fillcolor="#e58139"] ;
67 -> 73 ;
74 [label="gini = 0.0\nsamples = 26\nvalue = [0, 26]\nclass = y", fillcolor="#399de5"] ;
42 -> 74 ;
75 [label="WHOIS_COUNTRY_US <= -0.5\ngini = 0.295\nsamples = 39\nvalue = [32, 7]\nclass = T", fillcolor="#eb9d64"] ;
41 -> 75 ;
76 [label="APP_BYTES <= 0.474\ngini = 0.496\nsamples = 11\nvalue = [6, 5]\nclass = T", fillcolor="#fbeade"] ;
75 -> 76 ;
77 [label="gini = 0.0\nsamples = 4\nvalue = [4, 0]\nclass = T", fillcolor="#e58139"] ;
76 -> 77 ;
78 [label="REMOTE_IPS <= 0.3\ngini = 0.408\nsamples = 7\nvalue = [2, 5]\nclass = y", fillcolor="#88c4ef"] ;
76 -> 78 ;
79 [label="gini = 0.0\nsamples = 5\nvalue = [0, 5]\nclass = y", fillcolor="#399de5"] ;
78 -> 79 ;
80 [label="gini = 0.0\nsamples = 2\nvalue = [2, 0]\nclass = T", fillcolor="#e58139"] ;
78 -> 80 ;
81 [label="URL_LENGTH <= -0.679\ngini = 0.133\nsamples = 28\nvalue = [26, 2]\nclass = T", fillcolor="#e78b48"] ;
75 -> 81 ;
82 [label="SOURCE_APP_BYTES <= 4.578\ngini = 0.5\nsamples = 4\nvalue = [2, 2]\nclass = T", fillcolor="#ffffff"] ;
81 -> 82 ;
83 [label="gini = 0.0\nsamples = 2\nvalue = [0, 2]\nclass = y", fillcolor="#399de5"] ;
82 -> 83 ;
84 [label="gini = 0.0\nsamples = 2\nvalue = [2, 0]\nclass = T", fillcolor="#e58139"] ;
82 -> 84 ;
85 [label="gini = 0.0\nsamples = 24\nvalue = [24, 0]\nclass = T", fillcolor="#e58139"] ;
81 -> 85 ;
86 [label="WHOIS_COUNTRY_OTHER <= 0.5\ngini = 0.336\nsamples = 145\nvalue = [114, 31]\nclass = T", fillcolor="#eca36f"] ;
40 -> 86 ;
87 [label="SOURCE_APP_BYTES <= 2.649\ngini = 0.272\nsamples = 123\nvalue = [103, 20]\nclass = T", fillcolor="#ea995f"] ;
86 -> 87 ;
88 [label="APP_BYTES <= 0.696\ngini = 0.357\nsamples = 86\nvalue = [66, 20]\nclass = T", fillcolor="#eda775"] ;
87 -> 88 ;
89 [label="CHARSET_None <= 0.5\ngini = 0.302\nsamples = 70\nvalue = [57, 13]\nclass = T", fillcolor="#eb9e66"] ;
88 -> 89 ;
90 [label="TCP_CONVERSATION_EXCHANGE <= 0.386\ngini = 0.287\nsamples = 69\nvalue = [57, 12]\nclass = T", fillcolor="#ea9c63"] ;
89 -> 90 ;
91 [label="DNS_QUERY_TIMES <= 1.75\ngini = 0.337\nsamples = 56\nvalue = [44, 12]\nclass = T", fillcolor="#eca36f"] ;
90 -> 91 ;
92 [label="URL_LENGTH <= 1.0\ngini = 0.32\nsamples = 55\nvalue = [44, 11]\nclass = T", fillcolor="#eca06a"] ;
91 -> 92 ;
93 [label="URL_LENGTH <= 0.589\ngini = 0.364\nsamples = 46\nvalue = [35, 11]\nclass = T", fillcolor="#eda977"] ;
92 -> 93 ;
94 [label="APP_BYTES <= -0.038\ngini = 0.284\nsamples = 35\nvalue = [29, 6]\nclass = T", fillcolor="#ea9b62"] ;
93 -> 94 ;
95 [label="CHARSET_UTF-8 <= -0.5\ngini = 0.5\nsamples = 4\nvalue = [2, 2]\nclass = T", fillcolor="#ffffff"] ;
94 -> 95 ;
96 [label="gini = 0.0\nsamples = 2\nvalue = [0, 2]\nclass = y", fillcolor="#399de5"] ;
95 -> 96 ;
97 [label="gini = 0.0\nsamples = 2\nvalue = [2, 0]\nclass = T", fillcolor="#e58139"] ;
95 -> 97 ;
98 [label="SERVER_nginx <= 0.5\ngini = 0.225\nsamples = 31\nvalue = [27, 4]\nclass = T", fillcolor="#e99456"] ;
94 -> 98 ;
99 [label="gini = 0.0\nsamples = 20\nvalue = [20, 0]\nclass = T", fillcolor="#e58139"] ;
98 -> 99 ;
100 [label="URL_LENGTH <= -0.125\ngini = 0.463\nsamples = 11\nvalue = [7, 4]\nclass = T", fillcolor="#f4c9aa"] ;
98 -> 100 ;
101 [label="gini = 0.0\nsamples = 3\nvalue = [3, 0]\nclass = T", fillcolor="#e58139"] ;
100 -> 101 ;
102 [label="URL_LENGTH <= 0.339\ngini = 0.5\nsamples = 8\nvalue = [4, 4]\nclass = T", fillcolor="#ffffff"] ;
100 -> 102 ;
103 [label="WHOIS_COUNTRY_CA <= 0.5\ngini = 0.32\nsamples = 5\nvalue = [1, 4]\nclass = y", fillcolor="#6ab6ec"] ;
102 -> 103 ;
104 [label="gini = 0.0\nsamples = 4\nvalue = [0, 4]\nclass = y", fillcolor="#399de5"] ;
103 -> 104 ;
105 [label="gini = 0.0\nsamples = 1\nvalue = [1, 0]\nclass = T", fillcolor="#e58139"] ;
103 -> 105 ;
106 [label="gini = 0.0\nsamples = 3\nvalue = [3, 0]\nclass = T", fillcolor="#e58139"] ;
102 -> 106 ;
107 [label="CHARSET_UTF-8 <= -0.5\ngini = 0.496\nsamples = 11\nvalue = [6, 5]\nclass = T", fillcolor="#fbeade"] ;
93 -> 107 ;
108 [label="gini = 0.0\nsamples = 4\nvalue = [4, 0]\nclass = T", fillcolor="#e58139"] ;
107 -> 108 ;
109 [label="DNS_QUERY_TIMES <= 1.25\ngini = 0.408\nsamples = 7\nvalue = [2, 5]\nclass = y", fillcolor="#88c4ef"] ;
107 -> 109 ;
110 [label="gini = 0.0\nsamples = 4\nvalue = [0, 4]\nclass = y", fillcolor="#399de5"] ;
109 -> 110 ;
111 [label="DIST_REMOTE_TCP_PORT <= 0.1\ngini = 0.444\nsamples = 3\nvalue = [2, 1]\nclass = T", fillcolor="#f2c09c"] ;
109 -> 111 ;
112 [label="gini = 0.0\nsamples = 2\nvalue = [2, 0]\nclass = T", fillcolor="#e58139"] ;
111 -> 112 ;
113 [label="gini = 0.0\nsamples = 1\nvalue = [0, 1]\nclass = y", fillcolor="#399de5"] ;
111 -> 113 ;
114 [label="gini = 0.0\nsamples = 9\nvalue = [9, 0]\nclass = T", fillcolor="#e58139"] ;
92 -> 114 ;
115 [label="gini = 0.0\nsamples = 1\nvalue = [0, 1]\nclass = y", fillcolor="#399de5"] ;
91 -> 115 ;
116 [label="gini = 0.0\nsamples = 13\nvalue = [13, 0]\nclass = T", fillcolor="#e58139"] ;
90 -> 116 ;
117 [label="gini = 0.0\nsamples = 1\nvalue = [0, 1]\nclass = y", fillcolor="#399de5"] ;
89 -> 117 ;
118 [label="SERVER_Other <= 0.5\ngini = 0.492\nsamples = 16\nvalue = [9, 7]\nclass = T", fillcolor="#f9e3d3"] ;
88 -> 118 ;
119 [label="URL_LENGTH <= 2.214\ngini = 0.486\nsamples = 12\nvalue = [5, 7]\nclass = y", fillcolor="#c6e3f8"] ;
118 -> 119 ;
120 [label="SERVER_Apache <= 0.5\ngini = 0.42\nsamples = 10\nvalue = [3, 7]\nclass = y", fillcolor="#8ec7f0"] ;
119 -> 120 ;
121 [label="APP_BYTES <= 1.029\ngini = 0.48\nsamples = 5\nvalue = [3, 2]\nclass = T", fillcolor="#f6d5bd"] ;
120 -> 121 ;
122 [label="gini = 0.0\nsamples = 2\nvalue = [0, 2]\nclass = y", fillcolor="#399de5"] ;
121 -> 122 ;
123 [label="gini = 0.0\nsamples = 3\nvalue = [3, 0]\nclass = T", fillcolor="#e58139"] ;
121 -> 123 ;
124 [label="gini = 0.0\nsamples = 5\nvalue = [0, 5]\nclass = y", fillcolor="#399de5"] ;
120 -> 124 ;
125 [label="gini = 0.0\nsamples = 2\nvalue = [2, 0]\nclass = T", fillcolor="#e58139"] ;
119 -> 125 ;
126 [label="gini = 0.0\nsamples = 4\nvalue = [4, 0]\nclass = T", fillcolor="#e58139"] ;
118 -> 126 ;
127 [label="gini = 0.0\nsamples = 37\nvalue = [37, 0]\nclass = T", fillcolor="#e58139"] ;
87 -> 127 ;
128 [label="URL_LENGTH <= 0.339\ngini = 0.5\nsamples = 22\nvalue = [11, 11]\nclass = T", fillcolor="#ffffff"] ;
86 -> 128 ;
129 [label="URL_LENGTH <= -0.054\ngini = 0.408\nsamples = 14\nvalue = [4, 10]\nclass = y", fillcolor="#88c4ef"] ;
128 -> 129 ;
130 [label="gini = 0.0\nsamples = 2\nvalue = [2, 0]\nclass = T", fillcolor="#e58139"] ;
129 -> 130 ;
131 [label="APP_BYTES <= 0.362\ngini = 0.278\nsamples = 12\nvalue = [2, 10]\nclass = y", fillcolor="#61b1ea"] ;
129 -> 131 ;
132 [label="REMOTE_IPS <= 0.1\ngini = 0.5\nsamples = 4\nvalue = [2, 2]\nclass = T", fillcolor="#ffffff"] ;
131 -> 132 ;
133 [label="gini = 0.0\nsamples = 2\nvalue = [0, 2]\nclass = y", fillcolor="#399de5"] ;
132 -> 133 ;
134 [label="gini = 0.0\nsamples = 2\nvalue = [2, 0]\nclass = T", fillcolor="#e58139"] ;
132 -> 134 ;
135 [label="gini = 0.0\nsamples = 8\nvalue = [0, 8]\nclass = y", fillcolor="#399de5"] ;
131 -> 135 ;
136 [label="DNS_QUERY_TIMES <= 1.75\ngini = 0.219\nsamples = 8\nvalue = [7, 1]\nclass = T", fillcolor="#e99355"] ;
128 -> 136 ;
137 [label="gini = 0.0\nsamples = 6\nvalue = [6, 0]\nclass = T", fillcolor="#e58139"] ;
136 -> 137 ;
138 [label="DIST_REMOTE_TCP_PORT <= 0.1\ngini = 0.5\nsamples = 2\nvalue = [1, 1]\nclass = T", fillcolor="#ffffff"] ;
136 -> 138 ;
139 [label="gini = 0.0\nsamples = 1\nvalue = [0, 1]\nclass = y", fillcolor="#399de5"] ;
138 -> 139 ;
140 [label="gini = 0.0\nsamples = 1\nvalue = [1, 0]\nclass = T", fillcolor="#e58139"] ;
138 -> 140 ;
141 [label="DNS_QUERY_TIMES <= 4.25\ngini = 0.032\nsamples = 365\nvalue = [359, 6]\nclass = T", fillcolor="#e5833c"] ;
39 -> 141 ;
142 [label="WHOIS_COUNTRY_PA <= 0.5\ngini = 0.027\nsamples = 364\nvalue = [359, 5]\nclass = T", fillcolor="#e5833c"] ;
141 -> 142 ;
143 [label="WHOIS_COUNTRY_OTHER <= 0.5\ngini = 0.022\nsamples = 362\nvalue = [358, 4]\nclass = T", fillcolor="#e5823b"] ;
142 -> 143 ;
144 [label="WHOIS_COUNTRY_None <= 0.5\ngini = 0.012\nsamples = 343\nvalue = [341, 2]\nclass = T", fillcolor="#e5823a"] ;
143 -> 144 ;
145 [label="gini = 0.0\nsamples = 274\nvalue = [274, 0]\nclass = T", fillcolor="#e58139"] ;
144 -> 145 ;
146 [label="URL_LENGTH <= -0.339\ngini = 0.056\nsamples = 69\nvalue = [67, 2]\nclass = T", fillcolor="#e6853f"] ;
144 -> 146 ;
147 [label="URL_LENGTH <= -0.446\ngini = 0.198\nsamples = 18\nvalue = [16, 2]\nclass = T", fillcolor="#e89152"] ;
146 -> 147 ;
148 [label="gini = 0.0\nsamples = 12\nvalue = [12, 0]\nclass = T", fillcolor="#e58139"] ;
147 -> 148 ;
149 [label="DIST_REMOTE_TCP_PORT <= 1.1\ngini = 0.444\nsamples = 6\nvalue = [4, 2]\nclass = T", fillcolor="#f2c09c"] ;
147 -> 149 ;
150 [label="gini = 0.0\nsamples = 2\nvalue = [0, 2]\nclass = y", fillcolor="#399de5"] ;
149 -> 150 ;
151 [label="gini = 0.0\nsamples = 4\nvalue = [4, 0]\nclass = T", fillcolor="#e58139"] ;
149 -> 151 ;
152 [label="gini = 0.0\nsamples = 51\nvalue = [51, 0]\nclass = T", fillcolor="#e58139"] ;
146 -> 152 ;
153 [label="REMOTE_IPS <= 0.0\ngini = 0.188\nsamples = 19\nvalue = [17, 2]\nclass = T", fillcolor="#e89050"] ;
143 -> 153 ;
154 [label="gini = 0.0\nsamples = 1\nvalue = [0, 1]\nclass = y", fillcolor="#399de5"] ;
153 -> 154 ;
155 [label="REMOTE_IPS <= 1.5\ngini = 0.105\nsamples = 18\nvalue = [17, 1]\nclass = T", fillcolor="#e78845"] ;
153 -> 155 ;
156 [label="gini = 0.0\nsamples = 16\nvalue = [16, 0]\nclass = T", fillcolor="#e58139"] ;
155 -> 156 ;
157 [label="APP_BYTES <= 0.645\ngini = 0.5\nsamples = 2\nvalue = [1, 1]\nclass = T", fillcolor="#ffffff"] ;
155 -> 157 ;
158 [label="gini = 0.0\nsamples = 1\nvalue = [0, 1]\nclass = y", fillcolor="#399de5"] ;
157 -> 158 ;
159 [label="gini = 0.0\nsamples = 1\nvalue = [1, 0]\nclass = T", fillcolor="#e58139"] ;
157 -> 159 ;
160 [label="APP_BYTES <= 1.831\ngini = 0.5\nsamples = 2\nvalue = [1, 1]\nclass = T", fillcolor="#ffffff"] ;
142 -> 160 ;
161 [label="gini = 0.0\nsamples = 1\nvalue = [0, 1]\nclass = y", fillcolor="#399de5"] ;
160 -> 161 ;
162 [label="gini = 0.0\nsamples = 1\nvalue = [1, 0]\nclass = T", fillcolor="#e58139"] ;
160 -> 162 ;
163 [label="gini = 0.0\nsamples = 1\nvalue = [0, 1]\nclass = y", fillcolor="#399de5"] ;
141 -> 163 ;
164 [label="CHARSET_UTF-8 <= -0.5\ngini = 0.039\nsamples = 50\nvalue = [1, 49]\nclass = y", fillcolor="#3d9fe6"] ;
0 -> 164 [labeldistance=2.5, labelangle=-45, headlabel="False"] ;
165 [label="gini = 0.0\nsamples = 1\nvalue = [1, 0]\nclass = T", fillcolor="#e58139"] ;
164 -> 165 ;
166 [label="gini = 0.0\nsamples = 49\nvalue = [0, 49]\nclass = y", fillcolor="#399de5"] ;
164 -> 166 ;
}